FANN_FLO_2.1
num_layers=24
learning_rate=0.700000
connection_rate=1.000000
network_type=1
learning_momentum=0.000000
training_algorithm=2
train_error_function=1
train_stop_function=0
cascade_output_change_fraction=0.010000
quickprop_decay=-0.000100
quickprop_mu=1.750000
rprop_increase_factor=1.200000
rprop_decrease_factor=0.500000
rprop_delta_min=0.000000
rprop_delta_max=50.000000
rprop_delta_zero=0.100000
cascade_output_stagnation_epochs=12
cascade_candidate_change_fraction=0.010000
cascade_candidate_stagnation_epochs=12
cascade_max_out_epochs=150
cascade_min_out_epochs=50
cascade_max_cand_epochs=150
cascade_min_cand_epochs=50
cascade_num_candidate_groups=2
bit_fail_limit=3.49999994039535522461e-01
cascade_candidate_limit=1.00000000000000000000e+03
cascade_weight_multiplier=4.00000005960464477539e-01
cascade_activation_functions_count=10
cascade_activation_functions=3 5 7 8 10 11 14 15 16 17 
cascade_activation_steepnesses_count=4
cascade_activation_steepnesses=2.50000000000000000000e-01 5.00000000000000000000e-01 7.50000000000000000000e-01 1.00000000000000000000e+00 
layer_sizes=7 1 1 1 1 1 1 1 1 1 1 1 1 1 1 1 1 1 1 1 1 1 1 1 
scale_included=0
neurons (num_inputs, activation_function, activation_steepness)=(0, 0, 0.00000000000000000000e+00) (0, 0, 0.00000000000000000000e+00) (0, 0, 0.00000000000000000000e+00) (0, 0, 0.00000000000000000000e+00) (0, 0, 0.00000000000000000000e+00) (0, 0, 0.00000000000000000000e+00) (0, 0, 0.00000000000000000000e+00) (7, 11, 5.00000000000000000000e-01) (8, 5, 5.00000000000000000000e-01) (9, 14, 7.50000000000000000000e-01) (10, 5, 2.50000000000000000000e-01) (11, 14, 2.50000000000000000000e-01) (12, 5, 2.50000000000000000000e-01) (13, 15, 2.50000000000000000000e-01) (14, 16, 1.00000000000000000000e+00) (15, 5, 2.50000000000000000000e-01) (16, 8, 5.00000000000000000000e-01) (17, 5, 2.50000000000000000000e-01) (18, 15, 2.50000000000000000000e-01) (19, 15, 2.50000000000000000000e-01) (20, 5, 7.50000000000000000000e-01) (21, 14, 7.50000000000000000000e-01) (22, 14, 1.00000000000000000000e+00) (23, 14, 5.00000000000000000000e-01) (24, 14, 1.00000000000000000000e+00) (25, 14, 7.50000000000000000000e-01) (26, 15, 2.50000000000000000000e-01) (27, 14, 1.00000000000000000000e+00) (28, 15, 1.00000000000000000000e+00) (29, 6, 5.00000000000000000000e-01) 
connections (connected_to_neuron, weight)=(0, 1.55036008358001708984e+00) (1, -7.03879654407501220703e-01) (2, -6.78959667682647705078e-01) (3, 1.05456233024597167969e-01) (4, -2.76198196411132812500e+00) (5, 1.86385726928710937500e+00) (6, 1.45378664135932922363e-01) (0, 1.01791787147521972656e+00) (1, 8.57053160667419433594e-01) (2, 3.64568293094635009766e-01) (3, 1.20011067390441894531e+00) (4, 1.89510971307754516602e-01) (5, 1.86910295486450195312e+00) (6, -1.86472415924072265625e+00) (7, -8.64498555660247802734e-01) (0, 2.08060693740844726562e+00) (1, 1.72140586376190185547e+00) (2, 2.13402056694030761719e+00) (3, 1.76826584339141845703e+00) (4, 1.73509740829467773438e+00) (5, 1.46416711807250976562e+00) (6, 5.84030985832214355469e-01) (7, 2.37728342413902282715e-01) (8, 4.62714338302612304688e+00) (0, -3.60228985548019409180e-01) (1, 1.71334600448608398438e+00) (2, 6.44554257392883300781e-01) (3, 1.61480820178985595703e+00) (4, 3.94358754158020019531e-01) (5, 9.14964735507965087891e-01) (6, -1.56804037094116210938e+00) (7, 8.38760316371917724609e-01) (8, 4.08944368362426757812e+00) (9, -8.38295400142669677734e-01) (0, 1.04009377956390380859e+00) (1, 1.04301095008850097656e+00) (2, 1.08079957962036132812e+00) (3, 1.72380673885345458984e+00) (4, 5.58763086795806884766e-01) (5, 1.58891904354095458984e+00) (6, -2.27385807037353515625e+00) (7, -1.96652069687843322754e-01) (8, 4.72789287567138671875e+00) (9, 1.05389797687530517578e+00) (10, 2.83324146270751953125e+00) (0, 6.75587475299835205078e-01) (1, 5.87422072887420654297e-01) (2, 4.30939376354217529297e-01) (3, 6.61663293838500976562e-01) (4, 4.51201468706130981445e-01) (5, 9.32086527347564697266e-01) (6, -1.26722598075866699219e+00) (7, -3.44864606857299804688e-01) (8, 2.23131990432739257812e+00) (9, 1.00411188602447509766e+00) (10, 1.19364738464355468750e+00) (11, 1.26736915111541748047e+00) (0, 3.04323244094848632812e+00) (1, 2.77181529998779296875e+00) (2, 1.64711618423461914062e+00) (3, 3.21652054786682128906e+00) (4, 1.99587595462799072266e+00) (5, 2.72580218315124511719e+00) (6, 1.11321938037872314453e+00) (7, -2.48693868517875671387e-01) (8, 2.41730809211730957031e+00) (9, 1.31158971786499023438e+00) (10, 2.43331050872802734375e+00) (11, 1.94232308864593505859e+00) (12, 7.94655859470367431641e-01) (0, 2.47378158569335937500e+00) (1, 1.22194123268127441406e+00) (2, 2.65075993537902832031e+00) (3, -9.51126992702484130859e-01) (4, 3.62672758102416992188e+00) (5, 3.07357621192932128906e+00) (6, 4.81519579887390136719e-01) (7, 2.32938647270202636719e+00) (8, -6.31009459495544433594e-01) (9, 3.54252409934997558594e+00) (10, 4.15982961654663085938e-01) (11, 4.21530492603778839111e-02) (12, 1.49454459547996520996e-01) (13, 2.75021004676818847656e+00) (0, 1.14503860473632812500e+00) (1, -3.66516053676605224609e-01) (2, -6.02055788040161132812e-01) (3, -7.46662795543670654297e-01) (4, -1.53221762180328369141e+00) (5, -1.07511067390441894531e+00) (6, 9.94514286518096923828e-01) (7, 1.45471245050430297852e-01) (8, 2.27674055099487304688e+00) (9, 8.47272574901580810547e-01) (10, 4.38952589035034179688e+00) (11, 3.10174369812011718750e+00) (12, 2.94491887092590332031e+00) (13, 7.25025832653045654297e-01) (14, 1.10959894955158233643e-01) (0, 4.13530543446540832520e-02) (1, 9.85427200794219970703e-01) (2, 5.88965952396392822266e-01) (3, 1.24787437915802001953e+00) (4, 1.21691906452178955078e+00) (5, 1.52457892894744873047e-01) (6, 3.06028276681900024414e-01) (7, 7.18670189380645751953e-01) (8, 7.46102929115295410156e-01) (9, 2.97357082366943359375e+00) (10, 3.81848126649856567383e-01) (11, 5.14637708663940429688e-01) (12, 2.76433157920837402344e+00) (13, 1.62942934036254882812e+00) (14, 4.00238007307052612305e-01) (15, -6.75106585025787353516e-01) (0, 9.13089215755462646484e-01) (1, 1.30152988433837890625e+00) (2, 1.65176117420196533203e+00) (3, 3.75450909137725830078e-01) (4, -3.85747641324996948242e-01) (5, 1.45005738735198974609e+00) (6, -1.77171516418457031250e+00) (7, -2.08328023552894592285e-01) (8, 2.89377713203430175781e+00) (9, 2.09930610656738281250e+00) (10, 2.23331785202026367188e+00) (11, 1.21990132331848144531e+00) (12, 5.36348998546600341797e-01) (13, 1.72373116016387939453e+00) (14, -1.35220587253570556641e-03) (15, 9.12920475006103515625e-01) (16, 1.17244768142700195312e+00) (0, 2.55510878562927246094e+00) (1, 3.08251166343688964844e+00) (2, 2.52383494377136230469e+00) (3, 3.58294939994812011719e+00) (4, 3.72489261627197265625e+00) (5, 2.64107084274291992188e+00) (6, 2.54742622375488281250e-01) (7, 3.30349743366241455078e-01) (8, 1.38086938858032226562e+00) (9, 3.18475294113159179688e+00) (10, 2.94455409049987792969e-01) (11, 3.16621899604797363281e-01) (12, -6.80171489715576171875e-01) (13, 2.68586230278015136719e+00) (14, 3.59463483095169067383e-01) (15, -6.89001858234405517578e-01) (16, -1.21763753890991210938e+00) (17, 1.28684248775243759155e-02) (0, 2.93253254890441894531e+00) (1, 7.32151925563812255859e-01) (2, 1.67135572433471679688e+00) (3, 1.18594920635223388672e+00) (4, 2.19425296783447265625e+00) (5, 1.40919780731201171875e+00) (6, 2.84685540199279785156e+00) (7, -7.41048038005828857422e-01) (8, 3.37568783760070800781e+00) (9, 2.64060711860656738281e+00) (10, 2.63078403472900390625e+00) (11, 1.81321144104003906250e+00) (12, 1.38753581047058105469e+00) (13, 7.54935801029205322266e-01) (14, 1.10871627926826477051e-01) (15, 3.15240830183029174805e-01) (16, 3.23247224092483520508e-01) (17, 3.04695653915405273438e+00) (18, 2.04810619354248046875e+00) (0, 2.04029583930969238281e+00) (1, 2.72221755981445312500e+00) (2, 5.34322834014892578125e+00) (3, 1.24852695465087890625e+01) (4, 2.42598533630371093750e+01) (5, 2.03756961822509765625e+01) (6, 4.07691812515258789062e+00) (7, -1.67173900604248046875e+01) (8, 6.26492881774902343750e+00) (9, -4.91067790985107421875e+00) (10, 4.17806663513183593750e+01) (11, 9.43900299072265625000e+01) (12, 6.94412803649902343750e+00) (13, -8.52605056762695312500e+01) (14, -3.25960510253906250000e+02) (15, 2.36398513793945312500e+02) (16, 3.97812728881835937500e+01) (17, 1.61401031494140625000e+02) (18, 3.79419860839843750000e+01) (19, -5.71821594238281250000e+00) (0, 2.34062719345092773438e+00) (1, 1.19570887088775634766e+00) (2, 2.76052093505859375000e+00) (3, 1.28006207942962646484e+00) (4, 8.71178567409515380859e-01) (5, -3.41200888156890869141e-01) (6, -2.60332965850830078125e+00) (7, 7.76555240154266357422e-01) (8, 1.25044965744018554688e+00) (9, 1.79808545112609863281e+00) (10, 2.22045421600341796875e+00) (11, 2.34271526336669921875e+00) (12, 2.22069159150123596191e-01) (13, 1.53193712234497070312e+00) (14, 7.07450568675994873047e-01) (15, 9.62708234786987304688e-01) (16, 1.73548161983489990234e+00) (17, 9.98493909835815429688e-01) (18, 8.49617838859558105469e-01) (19, 1.79591012001037597656e+00) (20, 4.16707944869995117188e+00) (0, 1.51193809509277343750e+00) (1, 1.18518543243408203125e+00) (2, 2.95540928840637207031e+00) (3, 1.73835420608520507812e+00) (4, 1.21566474437713623047e+00) (5, 8.25504779815673828125e-01) (6, 1.91714644432067871094e+00) (7, -7.89527475833892822266e-01) (8, 2.46153563261032104492e-01) (9, 2.50338649749755859375e+00) (10, 6.75804257392883300781e-01) (11, 2.92093205451965332031e+00) (12, 1.24352204799652099609e+00) (13, 3.08062529563903808594e+00) (14, 4.73502349853515625000e+00) (15, 2.07471442222595214844e+00) (16, 4.83076095581054687500e-01) (17, -3.83001279830932617188e+00) (18, 5.89861810207366943359e-01) (19, 1.08098816871643066406e+00) (20, 1.29609870910644531250e+00) (21, 3.73705196380615234375e+00) (0, 1.29649341106414794922e+00) (1, 1.00957679748535156250e+00) (2, 2.42643475532531738281e+00) (3, 1.85226476192474365234e+00) (4, 1.11629152297973632812e+00) (5, -1.19766581058502197266e+00) (6, 4.05348539352416992188e-01) (7, -3.16418975591659545898e-01) (8, 1.85157746076583862305e-01) (9, 3.59940266609191894531e+00) (10, 1.67383551597595214844e+00) (11, 1.77082443237304687500e+00) (12, -6.44165426492691040039e-02) (13, 3.39976930618286132812e+00) (14, -5.23207855224609375000e+00) (15, 2.20180940628051757812e+00) (16, 4.95691478252410888672e-01) (17, 2.74503779411315917969e+00) (18, 3.06929171085357666016e-01) (19, 1.60492181777954101562e+00) (20, 3.86977124214172363281e+00) (21, 3.17558026313781738281e+00) (22, -1.71873700618743896484e+00) (0, 2.64831352233886718750e+00) (1, 4.19987297058105468750e+00) (2, 1.39677181839942932129e-01) (3, -3.91623234748840332031e+00) (4, 9.57787156105041503906e-01) (5, 5.09379100799560546875e+00) (6, -1.89609253406524658203e+00) (7, 1.90786304473876953125e+01) (8, 1.18060040473937988281e+00) (9, 1.30054533481597900391e+00) (10, 2.13182735443115234375e+00) (11, 2.90376639366149902344e+00) (12, 2.15919733047485351562e+00) (13, 3.11702156066894531250e+00) (14, -6.51363325119018554688e+00) (15, 5.98765730857849121094e-01) (16, 2.26935815811157226562e+00) (17, 1.66111774444580078125e+01) (18, 9.37211930751800537109e-01) (19, 1.65457963943481445312e+00) (20, 9.34655010700225830078e-01) (21, 4.85145187377929687500e+00) (22, -4.07923310995101928711e-01) (23, 1.62772357463836669922e+00) (0, -9.05446469783782958984e-01) (1, -8.04826676845550537109e-01) (2, 3.64091396331787109375e+00) (3, 4.18306016921997070312e+00) (4, -2.45645070075988769531e+00) (5, 7.34892964363098144531e-01) (6, -8.23117613792419433594e-01) (7, 1.81241965293884277344e+00) (8, 7.49577507376670837402e-02) (9, 3.80504417419433593750e+00) (10, 2.91773378849029541016e-01) (11, 5.70255756378173828125e-01) (12, 1.69638502597808837891e+00) (13, 2.76238846778869628906e+00) (14, 6.13458013534545898438e+00) (15, 3.75087857246398925781e+00) (16, 5.17064273357391357422e-01) (17, 9.37932777404785156250e+00) (18, 3.39670181274414062500e-01) (19, 3.80894041061401367188e+00) (20, 2.26585483551025390625e+00) (21, -5.82292556762695312500e-01) (22, 7.35775768756866455078e-01) (23, -3.34131538867950439453e-01) (24, 2.17716741561889648438e+00) (0, 1.32189881801605224609e+00) (1, -8.03001499176025390625e+00) (2, -1.27823901176452636719e+00) (3, 1.02683391571044921875e+01) (4, -2.09083867073059082031e+00) (5, -2.92577052116394042969e+00) (6, -3.18717837333679199219e+00) (7, 1.83472080230712890625e+01) (8, 2.06385278701782226562e+00) (9, 2.17403125762939453125e+00) (10, 3.46200513839721679688e+00) (11, 1.79610383510589599609e+00) (12, 3.21523380279541015625e+00) (13, -9.49127883911132812500e+01) (14, 1.52111949920654296875e+01) (15, 1.08886756896972656250e+01) (16, 5.64614534378051757812e-01) (17, -1.33807540893554687500e+02) (18, 3.20630455017089843750e+00) (19, 1.65027022361755371094e+00) (20, 1.60290253162384033203e+00) (21, 1.15688300132751464844e+00) (22, 2.68355131149291992188e+00) (23, 2.89426565170288085938e+00) (24, -1.01766502857208251953e+00) (25, 1.04417009353637695312e+01) (0, -1.86449006199836730957e-01) (1, 1.10415863990783691406e+00) (2, 3.70352101325988769531e+00) (3, -4.56419378519058227539e-01) (4, -2.21211150288581848145e-01) (5, 3.34222054481506347656e+00) (6, -2.11072355508804321289e-01) (7, 1.97590904235839843750e+01) (8, 1.70547592639923095703e+00) (9, 1.74817490577697753906e+00) (10, 2.80812025070190429688e+00) (11, 4.88659858703613281250e+00) (12, 4.67878198623657226562e+00) (13, 2.13018393516540527344e+00) (14, 2.35196137428283691406e+00) (15, 1.83235597610473632812e+00) (16, 5.31305670738220214844e-01) (17, 3.64113712310791015625e+00) (18, 2.40884160995483398438e+00) (19, 3.20126414299011230469e+00) (20, 1.81014370918273925781e+00) (21, 1.73605036735534667969e+00) (22, 1.95983961224555969238e-01) (23, 2.64548969268798828125e+00) (24, 8.91658544540405273438e-01) (25, 3.11634683609008789062e+00) (26, 4.48558664321899414062e+00) (0, 2.66530299186706542969e+00) (1, 2.47625255584716796875e+00) (2, -4.17402446269989013672e-01) (3, 4.49033737182617187500e+00) (4, 2.55195808410644531250e+00) (5, 2.96190667152404785156e+00) (6, -8.72981429100036621094e-01) (7, 2.16815757751464843750e+01) (8, 2.86768913269042968750e+00) (9, 1.43538558483123779297e+00) (10, 2.78860545158386230469e+00) (11, 2.72603416442871093750e+00) (12, 3.20588827133178710938e+00) (13, -4.08527946472167968750e+00) (14, -2.41649031639099121094e+00) (15, 4.44752836227416992188e+00) (16, 4.29501438140869140625e+00) (17, -2.40711765289306640625e+01) (18, 2.73512291908264160156e+00) (19, 1.80409491062164306641e+00) (20, 9.05729271471500396729e-03) (21, 4.58426094055175781250e+00) (22, 1.10942792892456054688e+00) (23, 3.16168689727783203125e+00) (24, 4.26529216766357421875e+00) (25, 5.81583499908447265625e-01) (26, 4.52277421951293945312e+00) (27, 2.62007188796997070312e+00) (0, -3.65327864885330200195e-01) (1, 4.81628149747848510742e-01) (2, 7.96797692775726318359e-01) (3, -4.08152520656585693359e-01) (4, -2.69853186607360839844e+00) (5, -3.13070726394653320312e+00) (6, 2.07430267333984375000e+00) (7, 2.53309392929077148438e+00) (8, 1.62875061035156250000e+01) (9, 2.86500358581542968750e+00) (10, 3.56158947944641113281e+00) (11, 8.45219016075134277344e-01) (12, 5.71936559677124023438e+00) (13, 1.96431052684783935547e+00) (14, -1.74472308158874511719e+00) (15, 2.94661116600036621094e+00) (16, 3.29549574851989746094e+00) (17, 1.51710462570190429688e+00) (18, 2.06668400764465332031e+00) (19, 4.13394498825073242188e+00) (20, -2.16267570853233337402e-01) (21, 5.31832218170166015625e-01) (22, 2.28384464979171752930e-01) (23, 3.28432768583297729492e-01) (24, 1.23199410736560821533e-01) (25, 1.71153590083122253418e-01) (26, 1.11730650067329406738e-01) (27, 1.34313464164733886719e-01) (28, 1.66535735130310058594e-01) 
